[{"layer": 0, "weights": [[]], "bias": [[]]}, {"layer": 1, "weights": [[0.4987060695806086, 0.5908344650403573, 0.559947329107916, 0.2712481082612091, -0.13516496224275298, 0.33382991026034686, 0.8891961189437176, 0.8700906584263998, 0.8403973368608303, 0.8694912751623753, 0.05063355682889251, -0.01308450051103551, 0.2607779037406146, 0.42417186800745044, 0.5848746733500682, -0.2221401935866818, 0.22524124087165584, 0.9730518833726366, -0.3549103373496802, -0.01426508240869893, 0.5517445285534227, 0.22196548998981047, 0.29003371975591213, 0.7989875512964282, 0.7967999138994035, 0.7076555042398294, 0.7888630912681931, 0.6474720174877783, 0.3971461959945694, 0.27204294795410394, 0.46986422173520237, 0.678056094727923, 0.7699959614930184, 0.20468686890860263, 0.4744215146021408, 0.13037258119359224, 0.3519492389783826, 0.5699845372832594, 0.8934267462703996, 0.2940015223025937, 0.6550471963979542, 0.9769531299391397, 0.37516501779951167, 0.8506023202572971, 1.011033198244362, 0.42743711155098957, 0.17005044521287124, 0.5465748139464702, 0.808266823539034, 0.23099904599579163, 0.5400640190271458, 0.042115325114848993, 0.6406757358694055, 0.08340720413347227], [0.7129109688579177, 0.6863705797752697, 0.5301890912580048, 0.17375851222252442, 0.3689766582517396, 0.23018180353469056, 0.2274343804786809, 0.625973721794267, 0.09843253975192105, 0.3655953800616881, 0.19326708346602828, 0.10475409695232867, 1.0010694971694214, 0.35881856213025154, 0.7101249486966769, 0.21936503498791324, 0.6089393018274416, 0.7642964860232045, 0.10134771976309384, 0.5389314702977647, 0.3531700510195711, 0.19576445183124574, 0.8644211275707102, 0.07112707258809572, 0.30058539747594243, 0.5687058268086285, 0.31548797877962864, 0.5501710648769127, 0.35271301419723217, 0.5078709069482078, 0.10979671368136572, 0.9574430437454269, 0.865002236145589, 0.9540064260277592, 0.8058470212731406, 0.5881129363610031, 0.1783639347297259, 0.7871385452069996, 0.13924432326217137, 0.9392563621500268, 0.14525930903687945, 0.7172307318914412, 0.1753737832691082, 0.8256374210317184, 0.545197183490402, 0.12671401391786397, 0.4179417209487378, 0.6940226255231546, 0.6375123206538711, 0.46168902668417394, 0.21983439387592135, 0.10510879058165595, 0.1302527272384716, 0.7919949819775259], [-0.5013972971560031, -0.6588787245824445, 0.2404059631149533, 0.27027376586354773, 1.3486825428618285, -0.47593759022376, 3.189993454118681, 1.5918764117664692, 0.40099737826569093, 0.5523791804601818, -0.27255611614407554, -1.406328270614128, -1.6989736063150778, -0.8036638299342049, 0.7500420656083857, 1.832988231706518, 0.860531379264994, -0.1582987090411798, 0.5304246741466896, 1.1033296432925557, 0.7682811628167159, 0.3550303416752037, 2.0977964193130823, 1.4196380451103703, -3.5750220901470895, 1.3370699839529607, -2.4403776281722354, -1.1417606178881936, -0.4021149549329727, 1.206223585928954, -0.6889804227743558, 0.06498825950103423, -0.10585442262574943, -0.21813961835532839, -1.5023867933998085, -1.083518275981661, -1.2855749522794855, 0.0689273029228429, -0.8518646402417027, 0.3704464751492746, -0.6228018939824108, -2.1184101222971226, 0.2775160138840175, -2.8100269259399893, -0.4816356351601487, -3.9275093566442365, 0.5331979229850692, 0.13825000015568759, 0.029062130460596896, -0.26782592994334403, 0.16797720079405942, 1.274666601608432, 2.056062885413685, -0.9934851554154802]], "bias": [[0.5542626902397688], [0.5203157382772479], [-2.226484732906295]]}, {"layer": 2, "weights": [[-1.7043527857736458, -0.7410747337080383, 10.278913989432453]], "bias": [[-2.511122189150683]]}]